digraph Tree {
node [shape=box] ;
0 [label="PTS <= 16982.0\nentropy = 0.963\nsamples = 196\nvalue = [120, 76]"] ;
1 [label="REB <= 2212.5\nentropy = 0.634\nsamples = 125\nvalue = [105, 20]"] ;
0 -> 1 [labeldistance=2.5, labelangle=45, headlabel="True"] ;
2 [label="PTS <= 12676.5\nentropy = 0.918\nsamples = 6\nvalue = [2, 4]"] ;
1 -> 2 ;
3 [label="STL <= 658.5\nentropy = 0.918\nsamples = 3\nvalue = [2, 1]"] ;
2 -> 3 ;
4 [label="entropy = 0.0\nsamples = 1\nvalue = [0, 1]"] ;
3 -> 4 ;
5 [label="entropy = 0.0\nsamples = 2\nvalue = [2, 0]"] ;
3 -> 5 ;
6 [label="entropy = 0.0\nsamples = 3\nvalue = [0, 3]"] ;
2 -> 6 ;
7 [label="BLK <= 1282.5\nentropy = 0.57\nsamples = 119\nvalue = [103, 16]"] ;
1 -> 7 ;
8 [label="PTS <= 14316.5\nentropy = 0.472\nsamples = 109\nvalue = [98, 11]"] ;
7 -> 8 ;
9 [label="entropy = 0.255\nsamples = 70\nvalue = [67, 3]"] ;
8 -> 9 ;
10 [label="entropy = 0.732\nsamples = 39\nvalue = [31, 8]"] ;
8 -> 10 ;
11 [label="PTS <= 15633.0\nentropy = 1.0\nsamples = 10\nvalue = [5, 5]"] ;
7 -> 11 ;
12 [label="entropy = 0.863\nsamples = 7\nvalue = [2, 5]"] ;
11 -> 12 ;
13 [label="entropy = 0.0\nsamples = 3\nvalue = [3, 0]"] ;
11 -> 13 ;
14 [label="AST <= 3901.5\nentropy = 0.744\nsamples = 71\nvalue = [15, 56]"] ;
0 -> 14 [labeldistance=2.5, labelangle=-45, headlabel="False"] ;
15 [label="PTS <= 20273.0\nentropy = 0.974\nsamples = 37\nvalue = [15, 22]"] ;
14 -> 15 ;
16 [label="BLK <= 841.5\nentropy = 0.954\nsamples = 24\nvalue = [15, 9]"] ;
15 -> 16 ;
17 [label="entropy = 0.567\nsamples = 15\nvalue = [13, 2]"] ;
16 -> 17 ;
18 [label="entropy = 0.764\nsamples = 9\nvalue = [2, 7]"] ;
16 -> 18 ;
19 [label="entropy = 0.0\nsamples = 13\nvalue = [0, 13]"] ;
15 -> 19 ;
20 [label="entropy = 0.0\nsamples = 34\nvalue = [0, 34]"] ;
14 -> 20 ;
}